16 50
CC -0.03278818 0.0419037 0.09694924 0.08874128 -0.08056352 -0.20127317 0.037986986 -0.15767437 0.054306585 0.026489668 -0.090363994 0.06429543 -0.015352626 -0.005762638 -0.3099968 0.023381028 -0.0035190322 -0.007322702 0.030064067 -0.035420172 0.123083204 0.09220553 -0.008397434 -0.07838829 0.028470716 -0.010102682 -0.10939042 0.020252405 0.056809146 0.19103056 0.061941743 -0.12703103 0.15565471 -0.15424861 0.15436481 0.14025332 -0.15375689 -0.19446981 -0.15438451 0.20281923 -0.021835232 0.13478772 -0.023143694 -0.123084284 -0.20611209 0.11204255 -0.08104788 -0.1011807 0.07892972 0.011670846
AC 0.0528962 0.2166259 0.16184457 0.009963836 0.025101935 -0.27978513 0.038587593 -0.16006888 -0.05191423 -0.037643205 -0.05705423 0.037963044 -0.0036923958 -0.0044485237 -0.20318834 0.011138692 -0.00012656103 -0.007888229 0.03233515 -0.03865626 0.12669158 0.053626362 -0.002257046 -0.12070924 0.023677109 0.04275321 -0.058179077 -0.012509361 0.01718431 0.13398674 0.018029105 -0.033823777 0.14471453 0.15879358 0.25997216 0.23721023 -0.10698778 -0.17878288 -0.04167653 0.042835902 -0.122002155 0.058863383 -0.017285729 0.028477829 -0.14545721 -0.0065261484 0.10134382 0.046787806 0.0520086 0.1257439
TC 0.07566611 0.106398664 -0.0148794465 0.09719258 -0.049851574 -0.27643177 0.06978732 -0.267072 0.11481525 0.029411286 -0.10847769 0.10125211 -0.010599257 -0.06118497 -0.4134074 0.04085505 -0.04205722 0.10324094 0.01815093 0.010127134 0.006297754 -0.08670333 -0.034530643 -0.059346996 0.023308061 0.02481959 -0.02381146 0.017954215 0.07516934 0.09186859 0.034235045 -0.07619209 0.07232131 0.13280818 0.1594892 0.13963166 -0.070384845 -0.20896652 -0.049400777 0.11634745 0.022801382 0.05690442 -0.054083224 -0.030293658 0.023965834 -0.019793529 0.071391925 0.0064995913 -0.07426585 -0.010112529
CA -0.08890772 -0.12782866 -0.0022794234 0.06807286 -0.07565075 -0.097911984 0.026746547 -0.07633265 -0.11219193 0.116939135 0.034567192 -0.019065093 -0.03359148 0.041485112 -0.32945263 0.035817087 -0.0888579 0.08947352 -0.01106821 -0.0063866335 0.07315761 0.15631981 0.007387184 0.009174002 0.007902466 -0.07032728 -0.07667891 0.031000955 0.015966186 0.11877015 0.06841866 -0.14267795 -0.05410941 -0.06912319 -0.027271217 0.07928306 -0.09040859 -0.06730123 -0.0074388217 0.08839562 -0.084211715 0.052855264 0.046772715 -0.0069286786 -0.29302922 0.0704042 -0.023638213 -0.26315337 0.19515559 0.015056525
CT -0.13675477 -0.047058616 0.073951736 0.060395695 -0.088011816 -0.011930822 -0.01403609 -0.04757446 -0.1135202 0.08126509 0.04248596 -0.04036199 -0.028869238 0.061175913 -0.29866716 0.02686246 0.0114106145 -0.057273977 0.008601163 -0.028600285 0.107936546 0.15936323 0.0020984255 -0.014602739 0.046569996 0.010976456 -0.11685914 0.029398669 0.0454419 0.13456364 0.080960035 -0.16875215 0.06388562 -0.19067894 0.028756186 0.010696635 -0.27914664 -0.119430706 -0.09783083 0.18593407 0.06327415 0.09935319 0.010896818 -0.05501634 -0.09940378 0.053991545 0.008458463 -0.0063918326 0.015242121 0.0035597717
TA 0.011448532 -0.03217523 -0.10417187 0.08258691 -0.06453546 -0.17752428 0.025585802 -0.21674487 0.01672353 0.12861782 -0.0077029048 0.033374798 -0.019688843 -0.03802648 -0.45202485 0.048005275 -0.09823756 0.1589835 -0.014356015 0.036601536 -0.05063978 -0.044322617 -0.023912605 0.026158486 0.02192608 -0.0044502146 -0.032029178 0.009589024 0.10548308 0.021579625 0.04804902 -0.11615128 -0.12728736 0.09910144 -0.01792538 0.10049759 -0.0059737754 -0.11886987 0.13901779 0.016411694 -0.08781937 -0.026230142 0.029662445 0.095672324 -0.09650274 -0.016469328 0.13300566 -0.16820624 0.011187604 -0.026434982
AT -0.07032207 0.06042056 0.13435027 -0.0004835786 -0.009129973 -0.1072141 -0.011208074 -0.08325218 -0.19326992 -0.031998094 0.024219502 -0.031859487 0.0042449185 0.03402388 -0.19022064 -0.0014059537 0.05209851 -0.10732761 0.029356115 -0.048893 0.11899907 0.09516858 0.0060112034 -0.08205958 0.028237531 0.0662789 -0.062503 -0.0213278 -0.011947327 0.114432044 0.0095551815 -0.012944216 0.0462166 0.05546227 0.14067991 0.15649614 -0.23985602 -0.13054533 -0.034962565 0.026208833 -0.071205854 0.0024054025 -0.011154941 0.16247858 -0.04112959 -0.020085791 0.15509497 0.1062063 0.0007776766 0.08915715
CG -0.16048464 -0.02450638 0.15401399 0.094821736 -0.19635244 0.039633382 0.050392143 -0.28636482 -0.09907681 0.05460635 0.013531606 -0.003193803 -0.022259368 0.054261513 -0.26083767 0.030156162 -0.04763858 0.041376088 -0.032899365 0.0059087696 0.109387934 0.12630884 0.052613832 -0.05133471 0.007274508 -0.12164653 -0.17033568 -0.013105168 0.10034762 0.09220564 0.07510874 -0.16709906 0.109392345 -0.16990726 -0.07485922 0.060761634 -0.08610952 -0.018314525 -0.20449105 0.008624802 -0.062474653 0.06500608 -0.09962923 -0.14594401 -0.18902223 -0.046406485 0.044353038 -0.08782495 0.056305334 0.12982672
GC 0.081693344 0.23858744 0.1618857 0.05255929 -0.05738876 -0.2736887 0.028853666 -0.14633428 0.10943066 -0.038686395 -0.10088866 0.077106535 0.0018801366 -0.052491017 -0.26893485 0.019329246 -0.015816683 0.04793822 0.034456193 -0.020548714 0.06715392 -0.033171706 -0.027153002 -0.10813515 0.011182283 0.014268509 0.029839648 0.041690066 -0.02840663 0.08451679 -0.005385709 0.011037888 0.1581542 -0.08282681 0.09442112 0.13544679 0.007385009 -0.14069048 -0.025045447 0.051311985 -0.07600415 -0.006020768 -0.13338144 -0.29127574 -0.11067959 0.030866178 -0.1509546 -0.071803845 0.00055320654 0.090798974
TT -0.065259315 -0.039575618 -0.043857504 0.082270764 -0.071419455 -0.09498297 0.029783813 -0.22317451 0.017186496 0.055319533 -0.044886768 0.044642765 -0.006854619 -0.033949856 -0.40664494 0.030060368 0.015747556 -0.011229871 0.030393662 -0.012043308 0.008173732 -0.024279833 -0.041236438 -0.01039712 0.054564934 0.10991866 -0.059670817 -0.0066627474 0.08866598 0.10348349 0.038966995 -0.08921842 0.026097178 0.044888813 -0.006103289 -0.005208191 -0.25521088 -0.12292705 0.0952923 0.10096254 0.07512612 -0.010713804 0.00055832975 0.0581499 0.10138251 -0.06219921 0.10615833 0.09552194 -0.1057576 0.008044044
AA 0.015500438 0.11260498 0.08932246 -0.0011582435 0.011779978 -0.19640186 -0.006015539 -0.09901114 -0.16599126 0.051229365 0.06672709 -0.046740085 -0.019311136 0.050379094 -0.22880737 0.024155166 -0.030115295 0.028250784 -0.013242148 0.0030929837 0.06569373 0.04433737 0.022802273 -0.06400948 0.018412894 -0.023320688 -0.05379611 -0.004860168 0.048912898 0.048963096 0.030817335 -0.071032524 -0.07901196 0.111403614 0.06748448 0.22928862 -0.05087018 -0.083992094 0.058206618 -0.086586505 -0.18569013 -0.022236975 0.047223616 0.21736963 -0.2529578 -0.010742172 0.1666143 -0.17319146 0.114655145 0.026948089
GT -0.019834796 0.048337515 0.07677258 0.029542444 -0.04815208 -0.09725176 0.00096386304 -0.055321876 -0.08157821 0.0004481979 0.015227547 -0.016124498 -0.008330103 0.02180283 -0.28099385 0.019365879 0.022220386 -0.039827056 0.021229893 -0.025379838 0.053846754 0.041897684 -0.016943958 -0.03332027 0.01852289 0.042717926 0.0319366 0.044493783 -0.070926115 0.06347639 0.00049424695 0.0043708547 0.10807258 -0.0488886 0.019568734 0.021424426 -0.10700096 -0.08266728 0.022408722 0.066714354 0.02099405 -0.024604248 -0.10863688 -0.2534283 -0.0061420253 -0.01946748 -0.1076104 0.06676796 -0.014989469 0.11323321
TG -0.10888727 0.007608729 0.082137704 0.08609311 -0.1675153 0.071541354 0.12524652 -0.40758115 -0.016662419 0.0011664301 -0.05071132 0.06940656 -0.0042061107 -0.027863666 -0.35675597 0.038988683 -0.06624323 0.13450359 -0.028109197 0.038366705 0.006952642 -0.07941792 0.018624991 -0.06600716 -0.0013432724 -0.06930461 -0.08231112 -0.030647587 0.11786464 0.017568097 0.03180057 -0.083505504 0.06391989 0.085647985 -0.056061186 0.07762033 -0.056428693 -0.09755496 -0.06805215 0.014953778 -0.013605996 -0.037834782 -0.16001321 -0.04123575 0.03925494 -0.15517323 0.16117144 -0.021662885 -0.11376084 0.06263029
GA 0.033905778 0.05141855 0.052393034 0.018719833 -0.028936291 -0.14907892 0.03235295 -0.05595421 -0.07841677 0.03611246 0.028605912 -0.0071221255 -0.016003335 0.014959977 -0.2944907 0.03286374 -0.05461106 0.08893487 -0.011646187 0.0135304835 0.012817361 -0.020793734 0.0034566293 -0.041681606 -0.010927164 -0.060578655 0.054821685 0.040896896 -0.034582075 0.0053619696 -0.004104286 0.0022659942 -0.04992618 -0.010623691 -0.059996434 0.14579035 0.0544498 -0.07847536 0.11814915 -0.026092028 -0.15578192 -0.103073075 -0.11139874 -0.17949846 -0.23151611 0.0017272027 -0.11323456 -0.27840003 0.13083994 0.06364772
AG -0.10059058 0.14425926 0.25308892 0.0016412924 -0.07840316 0.016745135 0.08460829 -0.27468 -0.18300591 -0.04402877 0.021021305 -0.0069602346 -0.0052089267 0.044251658 -0.16547653 0.016804863 -0.023581047 0.025403744 -0.025074534 0.0011178758 0.1148197 0.047579426 0.05888338 -0.11996637 -0.0017146006 -0.07731974 -0.11774842 -0.05345578 0.08267672 0.039268505 0.023274863 -0.060899924 0.1343414 0.13488789 0.050564863 0.17510578 -0.032787554 -0.042439107 -0.12016738 -0.06472009 -0.14148211 0.0015560208 -0.10733475 0.05247919 -0.14049388 -0.13240379 0.20563507 -0.0025349762 0.033349186 0.1547357
GG -0.003934876 0.116400585 0.17302662 0.09375951 -0.18666388 -0.111916475 0.04257073 -0.31503972 -0.03970343 -0.048976064 -0.04797738 0.037895396 -0.0003836097 -0.00028221728 -0.1793231 0.016328476 -0.11718778 0.16660011 -0.017569296 0.0026091351 0.09940106 0.09511732 0.020564783 -0.090146214 -0.04718008 -0.12607704 0.026228074 0.04176762 -0.1450083 0.045944285 -0.015137238 0.048097566 0.06775658 -0.11273096 -0.12320339 0.046931397 -0.09569998 -0.03831596 -0.10594872 -0.10611017 -0.005310884 -0.028596466 -0.08436061 -0.15205531 -0.0803027 -0.10944687 0.021494744 -0.08006903 -0.02807872 0.14944373
